Language model created by QuickLM on Mon Dec  5 18:12:06 EST 2016
Copyright (c) 1996-2010 Carnegie Mellon University and Alexander I. Rudnicky

The model is in standard ARPA format, designed by Doug Paul while he was at MITRE.

The code that was used to produce this language model is available in Open Source.
Please visit http://www.speech.cs.cmu.edu/tools/ for more information

The (fixed) discount mass is 0.5. The backoffs are computed using the ratio method.
This model based on a corpus of 46 sentences and 83 words

\data\
ngram 1=83
ngram 2=129
ngram 3=89

\1-grams:
-2.5729 001 -0.2999
-2.0958 2016 -0.2440
-2.0958 3 -0.2975
-2.5729 91 -0.2999
-0.9101 </s> -0.3010
-0.9101 <s> -0.2427
-2.5729 A -0.2999
-2.5729 AFTER -0.2440
-2.5729 ALPHA -0.2999
-2.5729 AM -0.2999
-2.5729 ARE -0.2440
-2.2718 BATTERY -0.2987
-2.5729 BE -0.2999
-2.5729 BEFORE -0.2440
-2.5729 BILLION -0.2999
-2.5729 BORN -0.2975
-2.5729 BUILT -0.2975
-2.5729 CHAT -0.2440
-2.5729 CHECK -0.2440
-2.5729 COMMAND -0.2440
-2.5729 CONSOLE -0.2440
-2.5729 CREATED -0.2975
-2.0958 DECEMBER -0.2975
-2.5729 DIAMETER -0.2440
-2.5729 EARTH -0.2440
-2.5729 EMAIL -0.2440
-2.2718 EMERGENCY -0.2987
-2.5729 EVERYWHERE -0.2440
-2.5729 FAILED -0.2987
-2.5729 FAILURE -0.2999
-2.5729 FINE -0.2440
-2.5729 GOODBYE -0.2440
-2.5729 HAH -0.2440
-2.5729 HELLO -0.2440
-2.5729 HERE -0.2440
-2.5729 HOW -0.2440
-1.9708 I -0.2964
-2.5729 IMMINENT -0.2440
-2.5729 IN -0.2999
-2.5729 INITIATED -0.2440
-2.5729 IS -0.2999
-2.5729 LIGHT -0.2999
-2.5729 LOW -0.2987
-2.5729 ME -0.2440
-2.5729 NATURE -0.2440
-2.5729 NO -0.2440
-2.5729 NOW -0.2440
-2.5729 OPEN -0.2440
-2.5729 PLANET -0.2999
-2.5729 POCKET -0.2440
-2.5729 POSITION -0.2440
-2.5729 QUADRANT -0.2999
-2.5729 REGION -0.2999
-2.5729 REPORT -0.2440
-2.5729 RESET -0.2440
-2.5729 SECTOR -0.2999
-2.2718 SHUTDOWN -0.2987
-2.5729 SLASHDOT -0.2440
-2.5729 SOLAR -0.2999
-2.5729 SPHEROID -0.2999
-2.5729 START -0.2440
-2.5729 STOP -0.2440
-2.5729 SWITCH -0.2440
-2.5729 SYSTEM -0.2999
-2.5729 TEST -0.2440
-2.5729 THE -0.2999
-2.5729 THEORIZED -0.2999
-2.5729 THERE -0.2440
-2.5729 TO -0.2999
-2.5729 UNIVERSE -0.2999
-2.5729 UNLOCK -0.2440
-2.5729 VOLTAGE -0.2999
-2.5729 WARNING -0.2987
-2.0958 WAS -0.2975
-2.5729 WHAT -0.2440
-2.5729 WHEN -0.2440
-2.5729 WHERE -0.2440
-2.5729 WHO -0.2440
-2.5729 WHY -0.2440
-2.5729 YEARS -0.2999
-2.5729 YES -0.2440
-2.5729 YOU -0.2440
-2.5729 ZERO -0.2440

\2-grams:
-0.3010 001 SOLAR 0.0000
-0.3010 2016 </s> -0.3010
-0.3010 3 2016 0.0000
-0.3010 91 BILLION 0.0000
-1.9638 <s> AFTER 0.0000
-1.9638 <s> ALPHA 0.0000
-1.9638 <s> ARE 0.0000
-1.9638 <s> BEFORE 0.0000
-1.9638 <s> CHAT 0.0000
-1.9638 <s> CHECK 0.0000
-1.9638 <s> COMMAND 0.0000
-1.9638 <s> CONSOLE 0.0000
-1.9638 <s> EMAIL 0.0000
-1.9638 <s> EMERGENCY 0.0000
-1.9638 <s> EVERYWHERE 0.0000
-1.9638 <s> GOODBYE 0.0000
-1.9638 <s> HAH 0.0000
-1.9638 <s> HELLO 0.0000
-1.9638 <s> HERE 0.0000
-1.9638 <s> HOW 0.0000
-1.3617 <s> I 0.0000
-1.9638 <s> ME 0.0000
-1.9638 <s> NATURE 0.0000
-1.9638 <s> NO 0.0000
-1.9638 <s> NOW 0.0000
-1.9638 <s> OPEN 0.0000
-1.9638 <s> POCKET 0.0000
-1.9638 <s> POSITION 0.0000
-1.9638 <s> REPORT 0.0000
-1.9638 <s> RESET 0.0000
-1.9638 <s> SLASHDOT 0.0000
-1.9638 <s> START 0.0000
-1.9638 <s> STOP 0.0000
-1.9638 <s> SWITCH 0.0000
-1.9638 <s> TEST 0.0000
-1.9638 <s> THE 0.0000
-1.9638 <s> THERE 0.0000
-1.9638 <s> UNLOCK 0.0000
-1.9638 <s> WARNING 0.0000
-1.9638 <s> WHAT 0.0000
-1.9638 <s> WHEN 0.0000
-1.9638 <s> WHERE 0.0000
-1.9638 <s> WHO 0.0000
-1.9638 <s> WHY 0.0000
-1.9638 <s> YES 0.0000
-1.9638 <s> YOU 0.0000
-1.9638 <s> ZERO 0.0000
-0.3010 A SPHEROID 0.0000
-0.3010 AFTER </s> -0.3010
-0.3010 ALPHA QUADRANT 0.0000
-0.3010 AM FINE 0.0000
-0.3010 ARE </s> -0.3010
-0.6021 BATTERY FAILURE 0.0000
-0.6021 BATTERY VOLTAGE 0.0000
-0.3010 BE A 0.0000
-0.3010 BEFORE </s> -0.3010
-0.3010 BILLION LIGHT 0.0000
-0.3010 BORN DECEMBER 0.0000
-0.3010 BUILT DECEMBER 0.0000
-0.3010 CHAT </s> -0.3010
-0.3010 CHECK </s> -0.3010
-0.3010 COMMAND </s> -0.3010
-0.3010 CONSOLE </s> -0.3010
-0.3010 CREATED DECEMBER 0.0000
-0.3010 DECEMBER 3 0.0000
-0.3010 DIAMETER </s> -0.3010
-0.3010 EARTH </s> -0.3010
-0.3010 EMAIL </s> -0.3010
-0.3010 EMERGENCY SHUTDOWN 0.0000
-0.3010 EVERYWHERE </s> -0.3010
-0.3010 FAILED BATTERY -0.1761
-0.3010 FAILURE IMMINENT 0.0000
-0.3010 FINE </s> -0.3010
-0.3010 GOODBYE </s> -0.3010
-0.3010 HAH </s> -0.3010
-0.3010 HELLO </s> -0.3010
-0.3010 HERE </s> -0.3010
-0.3010 HOW </s> -0.3010
-0.9031 I AM 0.0000
-0.4260 I WAS 0.0000
-0.3010 IMMINENT </s> -0.3010
-0.3010 IN DIAMETER 0.0000
-0.3010 INITIATED </s> -0.3010
-0.3010 IS THEORIZED 0.0000
-0.3010 LIGHT YEARS 0.0000
-0.3010 LOW EMERGENCY 0.0000
-0.3010 ME </s> -0.3010
-0.3010 NATURE </s> -0.3010
-0.3010 NO </s> -0.3010
-0.3010 NOW </s> -0.3010
-0.3010 OPEN </s> -0.3010
-0.3010 PLANET EARTH 0.0000
-0.3010 POCKET </s> -0.3010
-0.3010 POSITION </s> -0.3010
-0.3010 QUADRANT SECTOR 0.0000
-0.3010 REGION 91 0.0000
-0.3010 REPORT </s> -0.3010
-0.3010 RESET </s> -0.3010
-0.3010 SECTOR 001 0.0000
-0.6021 SHUTDOWN FAILED 0.0000
-0.6021 SHUTDOWN INITIATED 0.0000
-0.3010 SLASHDOT </s> -0.3010
-0.3010 SOLAR SYSTEM 0.0000
-0.3010 SPHEROID REGION 0.0000
-0.3010 START </s> -0.3010
-0.3010 STOP </s> -0.3010
-0.3010 SWITCH </s> -0.3010
-0.3010 SYSTEM PLANET 0.0000
-0.3010 TEST </s> -0.3010
-0.3010 THE UNIVERSE 0.0000
-0.3010 THEORIZED TO 0.0000
-0.3010 THERE </s> -0.3010
-0.3010 TO BE 0.0000
-0.3010 UNIVERSE IS 0.0000
-0.3010 UNLOCK </s> -0.3010
-0.3010 VOLTAGE LOW 0.0000
-0.3010 WARNING BATTERY -0.1761
-0.7782 WAS BORN 0.0000
-0.7782 WAS BUILT 0.0000
-0.7782 WAS CREATED 0.0000
-0.3010 WHAT </s> -0.3010
-0.3010 WHEN </s> -0.3010
-0.3010 WHERE </s> -0.3010
-0.3010 WHO </s> -0.3010
-0.3010 WHY </s> -0.3010
-0.3010 YEARS IN 0.0000
-0.3010 YES </s> -0.3010
-0.3010 YOU </s> -0.3010
-0.3010 ZERO </s> -0.3010

\3-grams:
-0.3010 001 SOLAR SYSTEM
-0.3010 3 2016 </s>
-0.3010 91 BILLION LIGHT
-0.3010 <s> AFTER </s>
-0.3010 <s> ALPHA QUADRANT
-0.3010 <s> ARE </s>
-0.3010 <s> BEFORE </s>
-0.3010 <s> CHAT </s>
-0.3010 <s> CHECK </s>
-0.3010 <s> COMMAND </s>
-0.3010 <s> CONSOLE </s>
-0.3010 <s> EMAIL </s>
-0.3010 <s> EMERGENCY SHUTDOWN
-0.3010 <s> EVERYWHERE </s>
-0.3010 <s> GOODBYE </s>
-0.3010 <s> HAH </s>
-0.3010 <s> HELLO </s>
-0.3010 <s> HERE </s>
-0.3010 <s> HOW </s>
-0.9031 <s> I AM
-0.4260 <s> I WAS
-0.3010 <s> ME </s>
-0.3010 <s> NATURE </s>
-0.3010 <s> NO </s>
-0.3010 <s> NOW </s>
-0.3010 <s> OPEN </s>
-0.3010 <s> POCKET </s>
-0.3010 <s> POSITION </s>
-0.3010 <s> REPORT </s>
-0.3010 <s> RESET </s>
-0.3010 <s> SLASHDOT </s>
-0.3010 <s> START </s>
-0.3010 <s> STOP </s>
-0.3010 <s> SWITCH </s>
-0.3010 <s> TEST </s>
-0.3010 <s> THE UNIVERSE
-0.3010 <s> THERE </s>
-0.3010 <s> UNLOCK </s>
-0.3010 <s> WARNING BATTERY
-0.3010 <s> WHAT </s>
-0.3010 <s> WHEN </s>
-0.3010 <s> WHERE </s>
-0.3010 <s> WHO </s>
-0.3010 <s> WHY </s>
-0.3010 <s> YES </s>
-0.3010 <s> YOU </s>
-0.3010 <s> ZERO </s>
-0.3010 A SPHEROID REGION
-0.3010 ALPHA QUADRANT SECTOR
-0.3010 AM FINE </s>
-0.3010 BATTERY FAILURE IMMINENT
-0.3010 BATTERY VOLTAGE LOW
-0.3010 BE A SPHEROID
-0.3010 BILLION LIGHT YEARS
-0.3010 BORN DECEMBER 3
-0.3010 BUILT DECEMBER 3
-0.3010 CREATED DECEMBER 3
-0.3010 DECEMBER 3 2016
-0.6021 EMERGENCY SHUTDOWN FAILED
-0.6021 EMERGENCY SHUTDOWN INITIATED
-0.3010 FAILED BATTERY FAILURE
-0.3010 FAILURE IMMINENT </s>
-0.3010 I AM FINE
-0.7782 I WAS BORN
-0.7782 I WAS BUILT
-0.7782 I WAS CREATED
-0.3010 IN DIAMETER </s>
-0.3010 IS THEORIZED TO
-0.3010 LIGHT YEARS IN
-0.3010 LOW EMERGENCY SHUTDOWN
-0.3010 PLANET EARTH </s>
-0.3010 QUADRANT SECTOR 001
-0.3010 REGION 91 BILLION
-0.3010 SECTOR 001 SOLAR
-0.3010 SHUTDOWN FAILED BATTERY
-0.3010 SHUTDOWN INITIATED </s>
-0.3010 SOLAR SYSTEM PLANET
-0.3010 SPHEROID REGION 91
-0.3010 SYSTEM PLANET EARTH
-0.3010 THE UNIVERSE IS
-0.3010 THEORIZED TO BE
-0.3010 TO BE A
-0.3010 UNIVERSE IS THEORIZED
-0.3010 VOLTAGE LOW EMERGENCY
-0.3010 WARNING BATTERY VOLTAGE
-0.3010 WAS BORN DECEMBER
-0.3010 WAS BUILT DECEMBER
-0.3010 WAS CREATED DECEMBER
-0.3010 YEARS IN DIAMETER

\end\
